digraph Tree {
node [shape=box, fontname="helvetica"] ;
edge [fontname="helvetica"] ;
0 [label="degree_spondylolisthesis <= 14.854\ngini = 0.437\nsamples = 310\nvalue = [100, 210]"] ;
1 [label="pelvic_radius <= 125.302\ngini = 0.479\nsamples = 161\nvalue = [97, 64]"] ;
0 -> 1 [labeldistance=2.5, labelangle=45, headlabel="True"] ;
2 [label="sacral_slope <= 40.566\ngini = 0.499\nsamples = 111\nvalue = [53, 58]"] ;
1 -> 2 ;
3 [label="pelvic_tilt numeric <= 10.486\ngini = 0.444\nsamples = 75\nvalue = [25, 50]"] ;
2 -> 3 ;
4 [label="pelvic_radius <= 116.018\ngini = 0.469\nsamples = 16\nvalue = [10, 6]"] ;
3 -> 4 ;
5 [label="gini = 0.0\nsamples = 6\nvalue = [0, 6]"] ;
4 -> 5 ;
6 [label="gini = 0.0\nsamples = 10\nvalue = [10, 0]"] ;
4 -> 6 ;
7 [label="pelvic_tilt numeric <= 13.354\ngini = 0.379\nsamples = 59\nvalue = [15, 44]"] ;
3 -> 7 ;
8 [label="gini = 0.0\nsamples = 11\nvalue = [0, 11]"] ;
7 -> 8 ;
9 [label="pelvic_tilt numeric <= 14.57\ngini = 0.43\nsamples = 48\nvalue = [15, 33]"] ;
7 -> 9 ;
10 [label="sacral_slope <= 32.272\ngini = 0.444\nsamples = 6\nvalue = [4, 2]"] ;
9 -> 10 ;
11 [label="gini = 0.0\nsamples = 2\nvalue = [0, 2]"] ;
10 -> 11 ;
12 [label="gini = 0.0\nsamples = 4\nvalue = [4, 0]"] ;
10 -> 12 ;
13 [label="degree_spondylolisthesis <= -1.504\ngini = 0.387\nsamples = 42\nvalue = [11, 31]"] ;
9 -> 13 ;
14 [label="gini = 0.0\nsamples = 7\nvalue = [0, 7]"] ;
13 -> 14 ;
15 [label="lumbar_lordosis_angle <= 50.953\ngini = 0.431\nsamples = 35\nvalue = [11, 24]"] ;
13 -> 15 ;
16 [label="pelvic_tilt numeric <= 21.859\ngini = 0.397\nsamples = 33\nvalue = [9, 24]"] ;
15 -> 16 ;
17 [label="degree_spondylolisthesis <= 0.108\ngini = 0.476\nsamples = 23\nvalue = [9, 14]"] ;
16 -> 17 ;
18 [label="gini = 0.0\nsamples = 3\nvalue = [3, 0]"] ;
17 -> 18 ;
19 [label="sacral_slope <= 33.102\ngini = 0.42\nsamples = 20\nvalue = [6, 14]"] ;
17 -> 19 ;
20 [label="pelvic_radius <= 120.344\ngini = 0.5\nsamples = 12\nvalue = [6, 6]"] ;
19 -> 20 ;
21 [label="degree_spondylolisthesis <= 9.029\ngini = 0.375\nsamples = 8\nvalue = [2, 6]"] ;
20 -> 21 ;
22 [label="pelvic_tilt numeric <= 18.329\ngini = 0.245\nsamples = 7\nvalue = [1, 6]"] ;
21 -> 22 ;
23 [label="gini = 0.0\nsamples = 5\nvalue = [0, 5]"] ;
22 -> 23 ;
24 [label="lumbar_lordosis_angle <= 37.019\ngini = 0.5\nsamples = 2\nvalue = [1, 1]"] ;
22 -> 24 ;
25 [label="gini = 0.0\nsamples = 1\nvalue = [1, 0]"] ;
24 -> 25 ;
26 [label="gini = 0.0\nsamples = 1\nvalue = [0, 1]"] ;
24 -> 26 ;
27 [label="gini = 0.0\nsamples = 1\nvalue = [1, 0]"] ;
21 -> 27 ;
28 [label="gini = 0.0\nsamples = 4\nvalue = [4, 0]"] ;
20 -> 28 ;
29 [label="gini = 0.0\nsamples = 8\nvalue = [0, 8]"] ;
19 -> 29 ;
30 [label="gini = 0.0\nsamples = 10\nvalue = [0, 10]"] ;
16 -> 30 ;
31 [label="gini = 0.0\nsamples = 2\nvalue = [2, 0]"] ;
15 -> 31 ;
32 [label="degree_spondylolisthesis <= 9.334\ngini = 0.346\nsamples = 36\nvalue = [28, 8]"] ;
2 -> 32 ;
33 [label="pelvic_tilt numeric <= 18.922\ngini = 0.225\nsamples = 31\nvalue = [27, 4]"] ;
32 -> 33 ;
34 [label="gini = 0.0\nsamples = 20\nvalue = [20, 0]"] ;
33 -> 34 ;
35 [label="lumbar_lordosis_angle <= 56.401\ngini = 0.463\nsamples = 11\nvalue = [7, 4]"] ;
33 -> 35 ;
36 [label="pelvic_tilt numeric <= 20.167\ngini = 0.444\nsamples = 6\nvalue = [2, 4]"] ;
35 -> 36 ;
37 [label="pelvic_tilt numeric <= 19.312\ngini = 0.444\nsamples = 3\nvalue = [2, 1]"] ;
36 -> 37 ;
38 [label="gini = 0.0\nsamples = 1\nvalue = [0, 1]"] ;
37 -> 38 ;
39 [label="gini = 0.0\nsamples = 2\nvalue = [2, 0]"] ;
37 -> 39 ;
40 [label="gini = 0.0\nsamples = 3\nvalue = [0, 3]"] ;
36 -> 40 ;
41 [label="gini = 0.0\nsamples = 5\nvalue = [5, 0]"] ;
35 -> 41 ;
42 [label="pelvic_incidence <= 66.545\ngini = 0.32\nsamples = 5\nvalue = [1, 4]"] ;
32 -> 42 ;
43 [label="gini = 0.0\nsamples = 1\nvalue = [1, 0]"] ;
42 -> 43 ;
44 [label="gini = 0.0\nsamples = 4\nvalue = [0, 4]"] ;
42 -> 44 ;
45 [label="sacral_slope <= 28.136\ngini = 0.211\nsamples = 50\nvalue = [44, 6]"] ;
1 -> 45 ;
46 [label="sacral_slope <= 24.275\ngini = 0.494\nsamples = 9\nvalue = [4, 5]"] ;
45 -> 46 ;
47 [label="pelvic_tilt numeric <= 18.204\ngini = 0.444\nsamples = 6\nvalue = [4, 2]"] ;
46 -> 47 ;
48 [label="gini = 0.0\nsamples = 4\nvalue = [4, 0]"] ;
47 -> 48 ;
49 [label="gini = 0.0\nsamples = 2\nvalue = [0, 2]"] ;
47 -> 49 ;
50 [label="gini = 0.0\nsamples = 3\nvalue = [0, 3]"] ;
46 -> 50 ;
51 [label="sacral_slope <= 29.929\ngini = 0.048\nsamples = 41\nvalue = [40, 1]"] ;
45 -> 51 ;
52 [label="pelvic_incidence <= 43.52\ngini = 0.375\nsamples = 4\nvalue = [3, 1]"] ;
51 -> 52 ;
53 [label="gini = 0.0\nsamples = 3\nvalue = [3, 0]"] ;
52 -> 53 ;
54 [label="gini = 0.0\nsamples = 1\nvalue = [0, 1]"] ;
52 -> 54 ;
55 [label="gini = 0.0\nsamples = 37\nvalue = [37, 0]"] ;
51 -> 55 ;
56 [label="degree_spondylolisthesis <= 20.085\ngini = 0.039\nsamples = 149\nvalue = [3, 146]"] ;
0 -> 56 [labeldistance=2.5, labelangle=-45, headlabel="False"] ;
57 [label="pelvic_tilt numeric <= 9.683\ngini = 0.375\nsamples = 4\nvalue = [1, 3]"] ;
56 -> 57 ;
58 [label="gini = 0.0\nsamples = 1\nvalue = [1, 0]"] ;
57 -> 58 ;
59 [label="gini = 0.0\nsamples = 3\nvalue = [0, 3]"] ;
57 -> 59 ;
60 [label="degree_spondylolisthesis <= 31.25\ngini = 0.027\nsamples = 145\nvalue = [2, 143]"] ;
56 -> 60 ;
61 [label="degree_spondylolisthesis <= 30.891\ngini = 0.108\nsamples = 35\nvalue = [2, 33]"] ;
60 -> 61 ;
62 [label="pelvic_radius <= 121.749\ngini = 0.057\nsamples = 34\nvalue = [1, 33]"] ;
61 -> 62 ;
63 [label="gini = 0.0\nsamples = 29\nvalue = [0, 29]"] ;
62 -> 63 ;
64 [label="sacral_slope <= 48.759\ngini = 0.32\nsamples = 5\nvalue = [1, 4]"] ;
62 -> 64 ;
65 [label="gini = 0.0\nsamples = 4\nvalue = [0, 4]"] ;
64 -> 65 ;
66 [label="gini = 0.0\nsamples = 1\nvalue = [1, 0]"] ;
64 -> 66 ;
67 [label="gini = 0.0\nsamples = 1\nvalue = [1, 0]"] ;
61 -> 67 ;
68 [label="gini = 0.0\nsamples = 110\nvalue = [0, 110]"] ;
60 -> 68 ;
}